svm_type c_svc
kernel_type linear
nr_class 2
total_sv 22
rho -0.123087
label 0 1
nr_sv 15 7
SV
0.00517153196739108 1:-1 3:-1 4:-1 5:-1 6:1 7:-1 9:-1 10:1 11:-1 12:-1 13:-1 14:-0.333333 15:-1 17:-1 18:-1 19:-1 20:-0.5 21:-1 22:-1 23:-1 24:-0.5 25:-1 26:-1 27:-1 28:-1 29:1 30:-1 31:-1 34:0.333333 35:-1 36:-1 37:1 39:-1 41:-1 42:1 43:-1 45:-1 46:-1 47:-0.5 48:-0.6 49:-0.2 50:-1 51:-0.333333 53:0.333333 54:-1 56:-1 57:-1 58:-1 59:-1 60:-1 61:-1 62:-1 63:1 64:1 65:1 66:-1 68:-1 69:-1 70:-1 71:-1 72:-1 74:1 75:-1 76:-1 77:-1 78:-1 79:1 81:-0.5 82:-1 83:-1 84:-1 86:-1 87:-1 88:-1 90:-1 91:-1 92:-1 93:-1 94:1 95:-1 97:-1 98:0.333333 99:-1 101:1 103:-1 104:-1 105:-0.333333 106:-1 107:1 108:1 109:-1 110:-1 111:-1 113:-0.333333 114:-1 115:-1 116:-0.333333 117:-1 118:1 119:-1 121:-1 124:-1 125:-1 126:-1 127:-1 128:-1 131:-1 132:-1 133:-1 134:-0.5 135:1 136:-1 137:-1 139:-1 140:-0.5 141:-1 142:-1 143:-1 145:-1 146:-1 147:-0.333333 148:1 149:-1 150:-1 152:-1 153:-1 154:-0.5 155:-1 156:-1 157:1 158:-1 160:-1 161:-1 162:-0.333333 163:1 165:-1 166:-1 168:-1 169:-1 171:-1 172:-1 173:-1 176:-1 177:-1 178:-1 179:1 181:-1 182:-1 183:-1 184:-1 185:-1 186:-1 187:-1 188:-0.714286 189:-1 190:-1 191:1 192:1 193:-1 194:1 195:-1 196:-0.333333 197:0.333333 198:-1 199:1 200:-1 
0.002660018802169807 1:-1 3:-0.333333 4:-1 5:-1 6:-1 7:-1 10:-1 11:-1 12:-1 14:-1 15:-1 17:-1 18:-1 19:-1 20:-1 21:-1 22:1 23:0.333333 24:-0.5 26:-1 27:-1 28:-1 29:1 30:-0.333333 31:-1 34:-1 35:-0.5 36:-1 38:-1 39:-1 42:-1 43:-1 44:-1 45:-1 46:1 47:-1 48:-0.6 49:-1 50:0.333333 51:-0.333333 53:-0.333333 54:-1 55:-0.5 56:1 58:-1 59:-1 60:-1 61:-1 62:-1 63:-1 64:-1 65:-1 66:-1 67:-1 68:-0.333333 69:-1 70:-1 71:1 74:-1 75:-1 76:1 77:-1 78:1 79:-1 81:-0.5 82:-0.333333 83:-1 84:-1 85:-1 86:-0.714286 88:-1 90:-1 91:-1 92:-1 93:-1 94:-1 95:1 97:-1 98:-1 99:1 101:1 103:-0.6 104:-1 105:-1 106:-1 107:-1 108:-1 109:-1 110:-1 111:-0.333333 113:-1 114:-1 115:-0.5 116:-0.333333 117:-1 118:-1 120:-1 121:-0.333333 122:-1 124:-1 125:0.333333 126:-1 128:-1 129:-1 130:1 131:-1 132:1 133:-1 134:-0.5 135:-1 136:-1 137:-1 138:-1 139:-1 140:-1 141:-1 142:-0.333333 143:-1 144:1 145:-1 146:-1 147:-1 148:-1 149:0.5 150:-1 152:-1 154:-1 155:-1 156:-1 157:-1 158:-0.333333 159:-1 160:1 161:-1 162:-1 163:-1 165:-1 166:-1 167:1 168:-1 169:-0.5 171:-1 172:-1 173:0.333333 176:-1 179:-1 180:-1 181:-1 182:-1 183:-1 184:-1 185:1 186:-1 187:-1 188:-0.714286 189:-1 190:-1 192:-1 193:-1 194:-1 195:0.333333 196:-1 197:0.333333 198:-1 
0.007156255189443579 1:-1 3:-0.333333 4:-1 5:-1 6:1 7:-1 8:1 9:1 10:-1 11:-1 12:-1 13:1 14:-1 15:-1 16:-1 17:0.333333 18:-1 19:-1 20:-1 21:-1 22:-1 23:-1 25:-1 26:-1 27:-1 28:-1 29:1 30:-0.333333 31:-1 32:-1 33:-1 34:-1 35:-1 36:-0.333333 38:-1 39:-1 40:-1 42:-1 43:-0.5 44:-1 45:-1 46:-1 47:-1 48:-0.2 49:-1 50:-0.333333 51:-1 53:-1 54:1 55:1 56:-1 57:-1 58:-1 59:1 60:-1 61:-1 62:-1 63:-1 64:-1 65:1 66:-1 67:-1 68:-0.333333 69:-1 70:-1 71:-0.5 73:1 74:-1 75:-1 76:-1 77:-1 78:-1 79:1 80:-1 81:-1 82:-0.333333 83:-1 84:1 85:1 86:-1 87:-1 88:-1 90:-1 91:-1 92:0.333333 93:-1 95:-1 96:1 97:-1 98:-1 99:1 100:-0.5 101:-1 103:-1 104:-0.5 105:1 106:-1 107:-0.333333 109:-1 110:1 111:-0.333333 112:-1 113:-0.333333 114:1 115:-1 116:-1 117:-0.333333 119:-1 120:-1 121:-1 124:-1 125:-1 126:-1 127:-0.5 128:-1 129:-1 131:-1 132:-0.333333 133:-1 134:-0.5 135:-1 136:-1 137:-1 138:1 139:-1 140:-1 141:-1 142:0.333333 143:-1 145:-1 146:-1 147:-1 148:1 149:-1 150:-1 151:1 152:-1 153:-1 154:-1 155:-0.666667 156:1 157:-1 158:-1 159:-1 160:1 161:-1 162:-1 163:-1 164:1 165:-1 166:-1 168:-1 169:-1 171:-1 173:-0.333333 174:1 176:-1 178:-1 179:1 180:-1 181:-1 182:-1 183:0.333333 184:-1 186:-1 187:1 188:-1 189:-1 190:-0.333333 191:-1 192:-1 193:-1 194:-1 195:0.333333 196:-1 197:-1 198:-1 
0.004196709312652609 1:-1 3:-1 4:-1 5:-1 7:-1 9:1 10:-1 11:-1 12:-1 13:-1 14:-1 15:-1 17:-0.333333 18:-1 19:-1 20:-1 21:-1 22:-1 23:-1 24:0.5 25:-1 26:-1 27:-0.333333 28:-1 29:1 30:-1 31:-1 34:0.333333 35:1 36:-0.333333 38:-1 39:-1 40:-1 41:-1 42:1 43:-0.5 44:-1 45:-1 46:-1 47:-1 48:-1 49:-1 50:-1 51:0.333333 53:-1 54:-1 56:-1 57:1 58:-1 59:-1 60:-1 61:-1 62:-1 63:-1 64:-1 65:-1 66:-0.333333 67:1 68:0.333333 69:-1 70:-1 72:-1 73:-1 74:1 75:-1 76:-1 77:-1 78:-1 79:-1 81:0.5 82:-1 83:-1 84:1 85:-1 86:-0.714286 87:-1 88:-1 91:-1 92:0.333333 93:-1 94:-1 95:-1 96:-1 97:-1 98:-1 100:-0.5 101:-1 103:-0.6 104:-1 105:-0.333333 107:-1 109:-1 110:1 111:-1 112:-1 113:-0.333333 114:-1 115:-0.5 116:-1 117:-0.333333 119:-1 120:-1 121:-1 122:1 124:-1 125:-1 127:1 128:-1 129:-1 130:1 131:-1 132:0.333333 133:-1 134:-1 135:-1 136:-1 137:-1 138:-1 139:-1 140:-1 141:-1 142:-1 143:-1 145:-1 146:-1 147:-1 148:-1 149:0.5 150:-1 152:-1 153:-1 154:-1 155:-0.333333 156:-1 157:-1 158:-1 159:-1 160:1 161:-1 162:-1 164:1 165:-1 166:-1 168:-1 169:-0.5 171:-1 172:-1 173:-0.333333 176:-1 177:1 179:-1 181:-1 182:-1 183:-0.333333 184:-1 185:-1 186:-1 187:-1 188:-0.714286 189:-1 190:-1 191:-1 192:-1 194:-1 195:0.333333 196:-1 197:-1 198:-1 199:1 200:1 
0.00663671109551644 1:-1 3:-0.333333 4:-1 5:-1 6:-1 7:-1 8:0.5 9:1 10:-1 11:-1 12:-1 13:-1 14:-1 15:-1 16:-1 17:-1 18:-1 19:-1 20:-1 21:-1 22:-1 23:-1 24:0.5 25:-1 26:-1 27:-0.333333 28:-1 29:1 30:-1 31:-1 32:1 33:1 34:-1 35:-1 36:1 37:-1 39:-1 40:-1 41:-1 42:-1 43:-0.5 44:-1 45:-1 47:-1 48:-1 49:-1 50:1 51:-0.333333 53:-1 54:-1 55:-0.5 56:-1 57:-1 58:-1 59:-1 60:-1 62:-1 63:-0.333333 64:-1 65:-1 66:-1 67:1 68:1 69:-1 70:-1 72:-1 73:-1 74:1 75:-1 76:-1 77:-1 78:-1 79:-1 81:1 82:-1 83:-1 84:-1 85:-1 86:-0.714286 87:-1 88:-1 91:-1 92:0.333333 93:-1 94:1 95:-1 97:-1 98:-1 99:-1 100:-0.5 101:1 103:-0.2 104:-1 105:-1 106:-1 107:-1 109:1 110:-1 111:-1 112:-1 113:-1 114:-1 115:-0.5 116:-1 117:0.333333 118:1 119:-1 120:-1 121:-1 123:-1 124:-1 125:-0.333333 126:-1 127:1 128:-1 129:-1 130:-1 131:-1 132:-0.333333 133:-1 134:0.5 135:-1 136:-1 137:-1 138:-1 139:-1 140:-1 141:-1 142:0.333333 143:-1 144:-1 145:-1 146:-1 147:-1 150:-1 151:-1 152:-1 153:-1 154:-1 155:-0.666667 156:-1 157:-1 158:-0.333333 159:-1 160:-1 161:-1 162:-1 163:-1 164:1 165:-1 166:-1 168:1 169:-1 171:-1 172:-1 173:1 174:-1 176:-1 177:-1 178:1 180:-1 181:-1 182:-1 183:-0.333333 184:-1 185:-1 186:-1 187:1 188:-0.714286 189:-1 190:-0.333333 191:-1 192:1 194:-1 195:1 196:-1 197:-1 198:1 200:-1 
0.003636149012241774 1:-1 3:1 4:-1 5:-1 6:-1 7:-1 8:1 10:-1 11:-1 12:-1 13:1 14:-1 15:-1 16:1 17:-1 18:-0.333333 19:-1 20:-1 21:-1 22:-1 23:-1 24:-0.5 25:-1 26:-1 27:-1 28:-1 30:-1 31:-1 32:1 34:-1 35:-1 36:0.333333 38:-1 39:-1 40:-1 41:-1 42:-1 43:-1 45:-1 46:-1 47:-0.5 48:-1 49:-1 50:0.333333 51:-1 53:-1 54:-1 55:-0.5 56:1 57:1 58:-1 59:-1 60:-1 61:-1 62:-1 63:-1 64:-1 65:-1 66:-0.333333 68:-0.333333 69:-1 70:-1 71:-0.5 72:-1 73:1 74:1 75:-1 76:-1 77:-1 78:-1 79:-1 80:1 81:-1 82:-1 83:-1 84:1 85:-1 86:-1 88:-1 90:-1 91:1 92:0.333333 93:-1 94:-1 95:1 96:-1 97:-1 98:-1 99:1 100:1 101:-1 103:-1 104:-1 105:-0.333333 107:-1 108:-1 109:-1 110:1 111:0.333333 112:-1 113:-1 114:-1 115:-1 116:-0.333333 117:1 119:-1 120:-1 121:-1 122:-1 123:-1 124:-1 125:1 127:0.5 128:-1 130:-1 131:-1 132:-0.333333 133:-1 135:-1 136:-1 137:-1 138:-1 139:-1 140:-0.5 141:-1 142:-1 143:-1 145:-1 146:-1 147:-1 148:-1 150:-1 152:-1 153:-1 154:-1 155:-0.333333 156:1 157:-1 158:-0.333333 159:-1 160:1 161:-1 162:-1 163:-1 164:-1 165:-1 166:-1 167:1 168:-1 169:-0.5 171:-1 172:-1 173:-0.333333 176:-1 178:-1 179:-1 181:-1 182:-1 183:-0.333333 184:-1 185:-1 186:-1 187:-1 188:-1 189:-1 190:-0.333333 191:-1 192:1 194:-1 195:0.333333 196:-1 197:-1 198:-1 199:1 200:1 
0.006716411157226996 1:-1 3:0.333333 4:-1 5:-1 7:-0.6 8:-0.5 10:-1 11:-1 12:1 13:-1 14:-0.333333 15:-1 16:-1 17:-0.333333 18:-1 19:-1 20:-1 21:-1 22:-1 23:-1 24:1 25:-1 26:-1 27:0.333333 28:-1 29:-1 30:-1 31:-1 32:-1 34:-1 35:-1 36:-0.333333 37:1 38:-1 39:-1 40:-1 41:-1 42:-1 43:-1 44:1 45:-1 46:1 47:-0.5 48:-0.6 49:-1 50:-1 51:-1 53:1 54:-1 55:-0.5 56:-1 57:-1 58:-0.2 59:-1 60:-1 62:-1 63:-1 64:-1 65:-1 66:0.333333 67:-1 68:-0.333333 69:-1 71:-0.5 72:-1 73:-1 74:-1 75:-1 76:-1 77:-1 78:1 79:-1 80:-1 81:-1 82:-0.333333 83:-0.5 84:-1 85:-1 86:-1 87:-1 88:-0.333333 90:-1 91:-1 92:-0.333333 93:0.333333 95:-1 96:-1 97:0.333333 98:0.333333 100:-1 101:-1 103:-0.2 104:-1 105:-1 106:-1 107:-1 108:1 109:-1 110:-1 111:-0.333333 112:1 113:-1 114:-1 115:-1 116:-0.333333 117:-0.333333 120:-1 121:-0.333333 122:-1 124:-1 125:-1 127:-1 128:-1 129:-1 131:-1 132:-0.333333 134:-0.5 135:1 136:-1 137:-1 138:-1 139:-1 140:-0.5 141:-1 142:-0.333333 144:-1 146:-1 147:-1 148:-1 150:-1 151:-1 152:-1 153:-1 154:0.5 155:-1 156:1 157:-1 158:-1 159:-1 160:1 162:-1 164:1 165:-1 166:-1 167:-1 168:1 169:-1 171:1 172:-1 173:-0.333333 174:-1 176:1 177:-1 178:-1 179:-1 181:1 182:-1 183:-0.333333 184:0.333333 185:-1 186:-1 187:-1 188:-0.142857 189:-1 190:-1 192:-1 193:-1 194:-1 195:-0.333333 196:-1 197:-0.333333 198:-1 199:-1 
0.006918309533424 1:-1 3:-1 5:-1 7:-1 8:-1 10:-1 11:-1 12:-1 14:0.333333 15:-1 16:-1 17:-0.333333 18:-0.333333 19:-1 20:-0.5 21:-1 22:-1 23:1 24:-0.5 25:-1 26:-1 27:0.333333 28:-1 29:-1 30:-0.333333 31:-1 32:-1 33:-1 34:0.333333 35:-1 36:0.333333 38:-1 40:-1 42:-1 43:-1 44:-1 45:-1 46:-1 47:-1 48:-0.2 49:-1 50:-1 51:-1 53:-1 54:-1 56:-1 58:-0.6 59:-1 60:1 63:-1 65:-1 66:0.333333 67:-1 68:-1 69:-1 70:1 71:-1 72:-1 73:-1 74:-1 75:-1 76:-1 77:-1 78:-1 79:1 80:-1 81:-0.5 82:0.333333 83:-1 84:-1 86:-1 88:-1 91:-1 92:-1 93:-0.333333 94:1 95:-1 96:-1 97:-0.333333 98:0.333333 99:-1 100:-1 101:-1 103:-0.2 104:-1 105:-1 107:-1 109:-1 110:-1 111:-0.333333 112:-1 113:-1 114:-1 115:-1 116:1 117:-1 119:-1 120:-1 121:0.333333 122:-1 124:0.333333 125:-1 127:-1 128:1 129:-1 131:-1 132:1 133:-1 134:-1 135:-1 136:-1 139:-1 140:-1 141:-1 142:-1 144:-1 145:-1 147:-1 148:-1 149:-0.5 150:-1 151:-1 152:-1 155:-1 156:1 158:-1 160:1 161:-1 162:-1 164:1 165:-1 166:-1 167:-1 168:1 169:-1 171:-1 173:-0.333333 174:-1 176:1 179:-1 180:-1 181:1 182:-1 183:1 184:-1 186:-1 187:-1 188:-0.714286 189:-1 190:-0.333333 191:-1 192:1 193:-1 194:-1 195:-1 196:-1 197:-0.333333 198:-1 199:-1 200:-1 
0.00283853762332474 1:-1 3:-1 4:-1 5:-1 7:-1 8:-0.5 10:-1 11:-1 12:-1 14:-0.333333 15:-1 17:-0.333333 18:-0.333333 19:-1 20:-1 21:-1 22:-1 23:1 24:-1 26:-1 27:-0.333333 28:-1 29:-1 30:-1 31:-1 33:-1 34:-0.333333 35:-1 36:0.333333 38:-1 39:-1 40:-1 42:1 43:-0.5 45:-1 46:1 47:-0.5 48:-1 49:-1 50:-1 51:-0.333333 53:0.333333 54:-1 55:-1 56:1 57:-1 58:-1 59:-1 60:-1 61:-1 63:-1 64:1 65:-1 66:0.333333 68:0.333333 69:-1 71:-1 72:-1 74:-1 75:-1 76:-1 77:-1 78:-1 79:-1 80:-1 81:-0.5 82:0.333333 83:-1 84:-1 85:-1 86:-1 87:-1 88:-1 91:-1 92:1 93:-0.333333 95:-1 96:-1 97:-1 98:-0.333333 100:-1 101:-1 103:0.2 104:-1 105:-1 107:-1 108:1 109:-1 110:-1 111:-1 112:-1 113:-0.333333 114:1 115:-1 116:-1 117:-1 119:1 120:-1 121:-0.333333 124:-1 125:-0.333333 126:-1 128:-1 129:-1 130:-1 131:-1 132:-1 133:-1 134:-1 135:-1 136:-1 137:-1 139:-1 140:-1 141:-1 142:-0.333333 143:-1 145:-1 146:1 147:-1 150:-1 151:-1 152:-1 153:-1 155:-1 156:1 157:-1 158:0.333333 160:-1 162:-0.333333 165:-1 166:-1 167:-1 168:1 171:1 172:-1 173:-0.333333 174:-1 176:1 177:-1 179:-1 181:1 182:-1 183:-1 184:-0.333333 185:-1 186:-1 187:-1 188:-1 189:-1 190:-1 191:-1 192:-1 193:-1 194:1 195:0.333333 196:-1 197:-1 198:-1 199:1 200:-1 
0.004648204820569862 1:-1 3:-1 5:-1 7:-0.6 8:-0.5 10:1 11:-1 12:-1 13:-1 14:-1 15:-1 16:-1 17:-1 18:-0.333333 19:-1 20:-1 21:-1 22:-1 23:0.333333 24:-1 26:-1 27:0.333333 28:-1 29:-1 30:-1 31:-1 33:-1 34:-0.333333 35:-1 36:0.333333 37:1 38:-1 39:-1 40:1 42:-1 43:-1 44:-1 45:1 47:-1 48:-0.6 49:-1 50:-1 51:-0.333333 53:-0.333333 54:-1 55:-0.5 56:-1 57:-1 58:-1 59:-1 60:-1 61:-1 62:-1 63:-1 64:1 65:1 66:-0.333333 68:0.333333 69:-1 70:1 71:-0.5 72:-1 73:-1 74:-1 75:-1 76:-1 77:-1 78:-1 79:-1 81:-0.5 82:1 83:-1 84:-1 85:-1 86:-1 87:-1 88:-1 91:-1 92:-0.333333 93:-0.333333 94:-1 95:-1 96:-1 97:1 98:-0.333333 99:-1 100:-1 101:-1 103:1 104:-1 105:-1 107:-1 108:-1 109:1 110:-1 111:-0.333333 112:-1 113:-1 114:1 115:-1 116:-1 117:-1 118:-1 119:-1 120:-1 121:1 124:-1 125:-1 127:-0.5 128:-1 129:-1 131:-1 132:-0.333333 133:-1 134:-1 135:-1 136:-1 139:-1 140:-1 141:-1 142:-1 143:1 145:-1 147:-1 148:-1 149:-0.5 150:-1 152:-1 153:-1 155:-0.666667 156:-1 157:-1 158:1 160:1 161:1 162:0.333333 165:-1 166:-1 167:-1 168:-1 171:-1 172:-1 173:-0.333333 174:-1 176:-1 177:-1 178:-1 179:-1 180:-1 181:-1 182:-1 183:-0.333333 184:-0.333333 185:-1 186:-1 187:-1 188:-1 189:-1 190:-1 191:-1 192:-1 194:-1 195:-0.333333 196:-1 197:0.333333 199:-1 200:-1 
0.007960316676584542 1:-1 3:-1 4:-1 5:-1 6:-1 7:-1 8:-1 10:1 11:-1 12:-1 13:1 14:-1 15:1 16:-1 17:-1 18:-0.333333 19:-1 20:-0.5 21:-1 22:-1 23:1 24:-1 26:-1 27:-1 28:-1 29:-1 30:-1 31:1 32:-1 34:0.333333 35:-1 36:0.333333 37:1 38:-1 39:-1 42:1 43:-1 44:-1 45:-1 46:-1 47:-0.5 48:-0.6 49:-1 50:-1 51:-1 53:0.333333 54:-1 55:-0.5 56:1 57:-1 58:-0.6 59:-1 60:-1 61:-1 62:-1 63:-1 64:-1 65:-1 66:0.333333 68:-1 69:-1 70:1 72:-1 74:-1 75:1 76:-1 77:-1 78:-1 79:-1 81:-1 82:0.333333 83:-1 84:-1 85:-1 86:-1 87:-1 88:-1 90:-1 91:-1 92:0.333333 93:-0.333333 95:-1 96:-1 97:-0.333333 98:1 99:-1 100:-1 101:-1 103:0.6 104:-1 105:-1 106:-1 107:-1 108:-1 109:-1 110:1 111:0.333333 113:-0.333333 114:-1 115:-1 116:-0.333333 117:-0.333333 118:-1 119:-1 120:-1 121:-1 122:-1 124:-1 125:-1 127:-1 128:-1 129:-1 131:-1 132:0.333333 133:1 134:-1 135:-1 136:-1 137:-1 138:-1 139:-1 140:-0.5 141:-1 142:-1 143:1 144:-1 145:-1 146:1 147:-0.333333 148:-1 149:-0.5 150:-1 152:-1 153:-1 154:-0.5 155:-0.666667 156:-1 158:0.333333 159:1 160:-1 161:-1 162:-1 163:-1 164:-1 165:-1 166:-1 167:-1 168:-1 169:1 171:-1 172:-1 173:-0.333333 174:-1 176:-1 179:-1 181:-1 182:-1 183:-1 184:-1 186:-1 187:-1 188:-1 189:-1 190:0.333333 191:-1 192:-1 193:-1 194:1 195:0.333333 196:-1 197:-1 
0.008062439170890116 1:-1 3:-0.333333 4:-1 5:1 6:-1 7:-1 8:-1 9:-1 10:1 11:-1 12:-1 13:-1 14:-1 15:1 16:-1 17:0.333333 18:0.333333 19:-1 20:-1 22:1 23:-1 25:-1 26:-1 27:-0.333333 28:-1 30:-1 31:-1 33:-1 34:-1 35:-1 36:0.333333 37:-1 38:-1 39:-1 41:-1 42:-1 43:-0.5 44:-1 47:1 48:-1 49:-1 50:-1 51:-1 53:0.333333 54:-1 55:-0.5 56:-1 57:-1 58:-0.6 59:-1 60:-1 61:1 62:-1 63:0.333333 64:-1 65:-1 66:-1 67:-1 68:-1 69:-1 70:-1 71:-0.5 72:-1 74:-1 75:-1 76:-1 77:-1 78:-1 79:-1 80:-1 81:-1 82:-0.333333 84:-1 86:0.142857 87:1 88:0.333333 90:-1 91:-1 92:-0.333333 93:-1 94:-1 95:-1 96:-1 97:-0.333333 98:-0.333333 99:-1 100:-1 101:1 103:-0.6 104:-1 105:-1 106:-1 107:-1 108:-1 109:-1 110:-1 111:-0.333333 112:-1 113:-1 114:-1 115:1 116:1 117:-1 118:-1 120:-1 121:0.333333 124:-0.333333 125:-1 126:-1 127:-1 128:-1 129:-1 130:-1 132:-1 133:-1 134:0.5 135:-1 136:1 137:-1 138:-1 139:-1 141:-1 142:-1 144:-1 145:-1 146:-1 147:-1 148:-1 149:-0.5 150:-1 151:-1 152:-1 153:-1 154:-1 155:1 156:-1 158:-1 159:-1 160:-1 161:-1 162:-0.333333 163:-1 164:-1 165:-1 166:1 167:-1 168:-1 169:-1 171:1 173:-0.333333 174:-1 176:-1 177:-1 178:-1 180:-1 181:-1 182:-1 183:-1 184:1 185:-1 186:-1 187:-1 188:-1 189:1 190:-1 192:-1 193:-1 194:-1 195:-1 196:1 197:-1 198:-1 199:-1 200:-1 
0.01168604395483822 1:1 3:0.333333 4:-1 5:-1 6:-1 7:1 8:-1 9:-1 10:-1 11:-1 12:-1 13:-1 14:-1 15:-1 16:-1 17:0.333333 18:-0.333333 19:-1 20:-0.5 21:-1 22:1 23:-0.333333 24:-0.5 25:1 26:1 27:-1 28:-1 29:-1 30:1 31:-1 32:-1 33:-1 34:-1 35:-1 36:-1 37:-1 38:1 39:-1 40:-1 41:-1 42:-1 43:-1 44:-1 45:-1 46:1 47:-1 48:-1 49:-1 50:-1 51:-0.333333 53:-1 54:-1 55:-1 56:-1 57:-1 58:-1 59:-1 60:-1 62:-1 63:-1 64:-1 65:1 66:-1 67:-1 68:-1 69:-1 70:1 71:-1 74:-1 75:-1 76:1 77:-1 78:-1 79:-1 80:-1 81:-1 82:-1 83:1 84:-1 85:-1 86:1 88:-0.333333 90:-1 91:1 92:-1 93:-1 94:-1 95:-1 97:0.333333 98:-1 99:-1 100:-1 101:-1 103:-0.6 104:1 105:-1 106:-1 107:-1 109:-1 110:-1 111:-1 112:-1 113:0.333333 114:-1 115:-1 116:0.333333 117:-1 118:-1 120:-1 121:0.333333 122:-1 123:1 124:-1 125:-1 127:-1 128:-1 130:-1 132:-1 133:-1 135:-1 136:-1 138:-1 139:1 140:-1 141:-1 142:-1 143:-1 144:-1 145:-1 147:-1 148:-1 150:-1 151:-1 152:-1 154:-1 155:-1 156:-1 157:-1 158:-0.333333 159:-1 160:-1 161:1 162:-0.333333 163:-1 164:-1 165:-1 166:-0.2 167:-1 168:-1 169:-1 171:-1 172:1 173:-1 174:-1 176:-1 177:-1 178:-1 181:-1 182:-0.5 183:-1 184:-0.333333 185:-1 186:-1 187:-1 188:1 189:1 190:-1 192:-1 193:-1 194:-1 195:-1 196:0.333333 197:-1 199:-1 200:-1 
0.003660973770377912 1:-1 3:0.333333 4:1 5:-1 6:-1 7:0.2 8:-1 9:-1 10:-1 11:-1 12:-1 13:-1 14:1 15:-1 16:-1 17:-1 18:-1 19:-1 20:1 22:-1 23:-0.333333 24:-1 25:1 26:-1 27:-1 28:-1 30:-1 31:-1 32:-1 34:-1 35:-1 36:-1 37:-1 38:1 39:-1 40:-1 41:-1 42:-1 43:-0.5 44:-1 47:-1 48:-1 49:-1 50:-1 51:-1 53:-1 54:1 55:-1 56:-1 57:-1 58:1 59:1 60:-1 61:-1 62:-1 63:-1 64:-1 65:1 66:-0.333333 67:-1 68:-1 69:-1 70:1 71:-1 72:-1 73:-1 74:-1 75:-1 76:-1 77:1 78:1 79:1 80:-1 81:-1 82:-1 83:0.5 84:-1 85:-1 86:0.428571 87:-1 88:-1 90:-1 91:-1 92:-1 93:-1 94:-1 95:-1 96:-1 97:1 98:-1 99:-1 100:-1 101:-1 103:-0.2 105:-1 106:-1 107:-1 109:-1 110:-1 111:-0.333333 112:-1 113:1 114:-1 115:-0.5 116:-0.333333 117:-1 118:-1 120:-1 121:0.333333 122:-1 124:-1 125:-1 127:-1 128:-1 129:1 130:-1 131:-1 132:-1 133:-1 134:-0.5 135:-1 136:-1 137:-1 138:-1 139:-1 140:-0.5 141:-1 142:-1 143:-1 144:-1 145:-1 146:1 147:-1 148:-1 149:-1 151:-1 152:-1 154:-1 155:-1 156:-1 157:-1 158:-1 159:-1 160:-1 162:-1 163:-1 165:1 166:-0.2 167:-1 168:-1 169:-1 171:1 173:0.333333 174:-1 176:1 177:-1 178:-1 179:-1 180:-1 181:-1 182:0.5 183:-1 184:0.333333 185:-1 186:-1 187:-1 188:0.714286 189:-1 190:-1 192:-1 193:-1 194:-1 195:-1 196:0.333333 197:-1 198:-1 199:-1 200:-1 
0.004548790586588436 1:-1 3:-0.333333 4:-1 5:-1 6:1 7:-1 8:-1 9:-1 10:1 11:-1 12:-1 13:-1 14:-1 15:1 17:-1 18:0.333333 19:-1 20:-1 21:1 22:1 23:-1 25:-1 26:-1 27:-1 28:-1 30:-1 31:-1 32:-1 34:-1 35:-1 36:-1 37:-1 39:-1 40:-1 41:1 42:1 43:1 44:-1 45:-1 46:-1 47:-1 48:-1 49:-0.2 50:-1 51:-0.333333 53:-1 54:-1 55:-1 56:1 57:-1 58:0.6 59:-1 60:-1 61:-1 63:-0.333333 64:-1 65:-1 66:-1 67:-1 68:-1 69:-1 70:-1 71:-0.5 72:-1 73:-1 74:-1 75:-1 76:-1 77:-1 78:-1 79:-1 80:-1 81:-1 82:-1 83:-1 84:-1 85:-1 86:1 87:1 88:-0.333333 90:-1 91:-1 92:-1 93:1 95:-1 96:-1 97:-0.333333 98:-1 99:-1 100:-0.5 101:-1 103:-1 104:1 105:-1 106:-1 107:-1 108:1 109:-1 110:-1 111:-0.333333 112:-1 113:-1 114:-1 115:-0.5 116:-1 117:-1 118:-1 119:-1 120:1 121:-0.333333 122:-1 124:0.333333 125:-0.333333 127:-1 128:-1 129:-1 130:-1 131:-1 132:-0.333333 134:-0.5 135:-1 136:-1 137:-1 138:-1 139:-1 140:-1 141:-1 142:-1 144:-1 145:-1 146:1 147:-1 148:-1 149:-0.5 150:-0.333333 151:-1 152:-1 153:-1 154:-1 155:-1 156:-1 158:-1 160:-1 161:-1 162:-1 163:-1 164:-1 165:-1 166:0.6 168:-1 169:-1 171:-1 172:-1 173:-1 174:-1 176:1 177:-1 179:1 180:-1 181:-1 182:1 183:-1 184:-0.333333 186:-1 187:-1 188:-0.428571 189:-1 190:-1 191:-1 192:-1 194:-1 195:-1 196:0.333333 197:-0.333333 199:-1 200:-1 
-0.01504616895798128 1:-1 3:-1 4:-1 5:-1 7:-0.6 8:-1 10:-1 11:-1 12:-1 13:-1 14:0.333333 15:-1 16:-1 17:1 18:-1 19:-1 20:-1 21:-1 22:-1 23:0.333333 25:-1 26:-1 27:-0.333333 28:-1 29:1 30:-1 31:-1 34:-1 35:-0.5 36:-0.333333 38:-1 40:-1 42:1 43:-1 44:-1 45:-1 46:-1 47:-1 48:-1 49:-0.2 50:-1 51:-0.333333 53:-0.333333 54:-1 55:-0.5 56:1 57:-1 58:-1 59:-1 60:-1 61:-1 63:-0.333333 65:-1 66:-0.333333 67:-1 68:-1 69:-1 71:-0.5 72:1 73:-1 74:-1 75:1 76:-1 77:-1 78:-1 79:-1 81:-0.5 82:-0.333333 83:-1 84:1 85:-1 86:-1 87:-1 88:-1 90:-1 91:1 92:-0.333333 93:-1 94:-1 95:-1 96:1 97:1 98:-0.333333 99:-1 100:-1 101:-1 103:-1 104:-1 105:-1 106:-1 107:-0.333333 109:-1 110:-1 111:-1 113:-1 114:-1 115:-1 116:1 117:-1 118:-1 119:1 120:-1 121:-1 122:-1 123:-1 124:-1 125:-1 126:1 127:-0.5 128:-1 130:-1 131:-1 132:0.333333 134:-1 135:-1 136:-1 137:1 139:-1 140:-1 141:-1 142:1 143:-1 144:-1 145:-1 146:-1 147:1 149:-1 150:-1 152:-1 153:-1 155:-1 156:-1 157:-1 158:-1 159:-1 160:-1 161:1 162:-1 164:-1 165:-1 166:-1 167:-1 168:1 169:-1 171:-1 173:-0.333333 174:-1 176:-1 177:-1 178:-1 179:-1 180:1 181:-1 182:-1 183:1 184:0.333333 185:-1 186:1 187:1 188:-1 189:-1 190:-0.333333 192:-1 193:1 194:1 195:-0.333333 196:-1 197:-1 199:-1 200:-1 
-0.01418869152357529 1:-1 3:-0.333333 4:-1 5:-1 6:-1 7:-0.6 8:-1 9:1 10:-1 11:-1 12:1 14:-1 15:-1 16:-1 17:1 18:-1 19:-1 20:-1 21:-1 22:1 23:-1 24:-1 25:1 26:-1 27:-1 28:-1 30:-1 31:1 32:-1 33:-1 34:-1 35:-1 36:-0.333333 39:-1 41:-1 42:-1 43:-0.5 44:-1 46:-1 47:-0.5 48:0.2 49:-1 50:-1 51:0.333333 53:-1 54:-1 55:-0.5 56:1 57:1 58:-1 59:-1 60:1 61:-1 63:-0.333333 65:-1 66:-1 68:-0.333333 69:-1 70:1 72:-1 74:-1 75:-1 76:-1 77:-1 78:1 79:-1 80:-1 81:-1 82:0.333333 83:-1 84:1 85:-1 86:-1 87:-1 88:0.333333 90:-1 91:-1 92:-1 93:-1 94:-1 95:1 96:-1 97:-1 98:-1 99:-1 100:-0.5 101:-1 103:0.2 104:-1 105:-1 106:-1 107:0.333333 108:1 109:-1 110:-1 111:-1 112:-1 113:-1 114:1 115:-1 116:-1 117:-0.333333 118:-1 119:-1 120:-1 121:-1 122:-1 123:-1 124:0.333333 125:-1 128:-1 129:-1 131:-1 132:-0.333333 133:1 134:-1 135:-1 136:-1 137:-1 138:-1 139:-1 140:-1 141:-1 142:0.333333 143:-1 145:1 146:-1 147:-0.333333 148:-1 149:-0.5 150:-1 151:1 152:-1 153:1 154:-1 155:-1 156:-1 157:1 158:-1 159:-1 160:-1 161:1 162:1 163:-1 164:1 165:-1 166:-1 167:-1 168:-1 169:-1 171:-1 173:-1 174:-1 176:-1 177:-1 178:-1 180:-1 181:-1 182:-1 183:-0.333333 184:0.333333 185:-1 186:-1 187:-1 188:-1 189:-1 190:0.333333 192:-1 194:-1 195:0.333333 196:-1 197:-1 199:-1 200:-1 
-0.0108107578848142 1:-1 3:-1 4:-1 5:-1 6:-1 7:-0.6 8:-0.5 9:1 10:-1 11:1 12:-1 13:-1 14:-1 15:-1 16:1 17:-1 18:-1 19:1 20:-1 21:-1 22:1 23:-0.333333 24:-0.5 25:-1 26:-1 27:-1 28:-1 29:-1 30:-0.333333 31:-1 32:-1 33:-1 34:1 35:-1 36:-0.333333 38:-1 39:1 40:-1 41:-1 42:-1 43:-1 44:1 45:-1 47:-1 48:-0.2 49:-1 50:-1 51:0.333333 53:-1 54:1 55:-0.5 56:-1 57:1 58:-1 59:1 60:-1 61:-1 63:-0.333333 64:-1 65:1 66:-1 68:-1 69:1 70:-1 71:-0.5 72:1 73:-1 74:-1 75:1 76:-1 77:-1 78:-1 79:-1 80:-1 81:-1 82:0.333333 83:-1 84:1 86:-1 87:-1 88:-1 90:-1 91:-1 92:-0.333333 93:-0.333333 94:1 95:-1 96:-1 97:-1 98:-1 100:-1 101:-1 103:-0.2 104:-1 105:-1 106:-1 107:-1 108:1 109:-1 110:-1 111:0.333333 113:-1 114:-1 115:-0.5 116:-0.333333 117:-1 118:-1 120:-1 121:-1 122:-1 124:1 125:-1 126:-1 128:-1 129:-1 130:-1 131:-1 132:0.333333 133:-1 134:-1 135:-1 136:1 137:-1 139:-1 140:-1 141:-1 142:-0.333333 143:-1 145:-1 146:-1 147:-1 150:-1 151:-1 152:1 153:-1 155:-0.666667 156:-1 157:-1 158:-1 159:-1 160:-1 161:1 162:0.333333 163:-1 165:-1 166:-1 167:-0.5 168:-1 169:-0.5 171:-1 173:-0.333333 174:-1 176:-1 177:-1 178:-1 181:1 182:-1 183:0.333333 184:-0.333333 185:-1 186:-1 187:-1 188:-1 189:1 190:-0.333333 191:-1 192:-1 194:-1 195:0.333333 196:-1 197:-1 199:-1 200:-1 
-0.008742826350747523 1:-1 3:-1 4:-1 5:-1 6:-1 7:-0.6 8:-0.5 10:1 11:-1 12:-1 13:-1 14:-1 15:1 16:-1 17:-1 18:-1 19:1 20:-1 21:-1 22:-1 23:-0.333333 24:-1 25:-1 26:-1 27:-1 28:-1 29:1 30:-1 31:-1 34:-0.333333 35:-1 36:-0.333333 37:1 38:-1 39:1 40:-1 41:-1 42:1 43:-1 44:-1 45:-1 46:-1 47:-1 48:1 49:-0.6 50:-0.333333 51:-1 53:-0.333333 54:-1 55:-0.5 56:-1 58:-1 59:1 60:-1 62:1 63:-1 65:-1 66:-1 68:-0.333333 69:1 70:-1 71:1 72:-1 74:1 75:-1 76:-1 77:-1 78:1 79:-1 80:-1 81:-0.5 82:-1 83:-1 84:1 85:-1 86:-1 87:-1 88:-1 91:1 92:-0.333333 93:-0.333333 94:-1 95:-1 96:-1 97:-1 98:-1 99:-1 100:-0.5 101:1 103:-0.2 104:-1 105:-1 106:-1 107:0.333333 108:1 109:-1 110:-1 111:1 113:-1 114:-1 115:-1 116:-0.333333 117:-1 118:-1 120:-1 121:0.333333 123:-1 124:-0.333333 125:-1 126:-1 127:-1 128:-1 129:-1 130:-1 131:-1 132:-0.333333 134:-1 135:-1 136:-1 137:-1 138:-1 139:1 140:-1 141:1 142:0.333333 143:-1 144:-1 145:1 146:-1 147:-1 148:-1 149:-1 150:-1 152:1 155:-1 156:-1 157:-1 158:-1 159:-1 160:-1 161:1 162:0.333333 165:-1 166:-1 167:-0.5 168:-1 169:-0.5 171:-1 172:-1 173:-0.333333 174:-1 176:-1 180:-1 181:-1 182:-1 183:-0.333333 184:0.333333 185:-1 186:-1 187:-1 188:-0.714286 189:-1 190:-1 191:-1 192:1 193:-1 194:-1 195:-0.333333 196:-0.333333 197:-1 199:-1 200:-1 
-0.01014149324509043 1:-1 3:-0.333333 4:-1 5:1 6:-1 7:-1 8:-1 9:-1 10:-1 11:-1 12:1 14:-1 15:1 17:-0.333333 18:0.333333 19:1 20:-1 21:-1 22:-1 23:0.333333 24:-1 25:-1 26:-1 27:1 28:-1 30:-1 31:-1 32:-1 34:-1 35:-1 36:-1 37:-1 38:-1 39:-1 40:1 41:-1 42:-1 43:-1 45:-1 46:-1 47:0.5 48:-0.6 49:-0.6 50:-1 51:-0.333333 53:-0.333333 54:-1 55:-1 56:-1 57:-1 58:-0.6 59:1 60:1 61:-1 62:-1 63:-0.333333 65:1 66:-1 67:-1 68:-1 69:1 70:-1 71:-1 73:-1 74:1 75:1 76:-1 77:-1 78:1 79:-1 81:-0.5 82:-1 83:0.5 84:-1 85:-1 86:-0.142857 88:-1 90:-1 91:-1 92:-1 93:-1 94:-1 95:-1 96:-1 97:-1 98:-1 101:-1 103:-1 104:-0.5 105:-1 106:1 107:-1 108:-1 109:-1 110:-1 111:-1 112:-1 113:-0.333333 114:-1 116:-0.333333 117:-1 118:-1 120:-1 121:-0.333333 122:-1 123:-1 124:-1 125:-1 126:-1 128:-1 129:-1 131:1 132:-1 135:-1 136:-1 137:-1 138:-1 139:-1 140:-0.5 141:-1 142:-1 144:-1 145:-1 146:-1 147:-1 148:-1 149:-1 150:1 152:-1 153:-1 154:-1 155:-0.333333 156:-1 157:-1 158:-1 160:1 161:-1 162:-1 165:-1 166:0.2 167:-1 168:-1 169:-1 171:-1 172:-1 173:-1 174:-1 176:1 178:1 179:-1 180:-1 181:1 183:-0.333333 184:-1 185:-1 186:1 187:-1 188:-0.428571 189:-1 190:0.333333 191:-1 192:-1 193:-1 194:-1 195:-0.333333 196:-1 197:-1 198:-1 199:-1 
-0.01197416909378015 1:1 3:-0.333333 4:-1 5:-1 6:-1 7:-1 8:-1 9:-1 10:-1 11:-1 12:1 13:-1 14:-1 15:-1 17:-1 18:0.333333 19:-1 20:-1 21:-1 22:-1 23:-1 24:-0.5 25:1 26:-1 27:-0.333333 28:1 30:-1 32:1 34:-1 35:-0.5 36:-1 37:1 38:-1 40:-1 41:-1 42:1 43:-0.5 44:-1 45:-1 46:-1 47:-0.5 48:-1 49:-1 50:-0.333333 51:1 53:1 54:-1 55:-1 56:-1 57:-1 58:-1 59:1 60:1 61:-1 63:-1 64:-1 65:-1 66:-1 67:-1 68:-1 69:-1 70:-1 71:-0.5 74:-1 75:-1 76:1 77:-1 78:-1 79:-1 81:-1 82:-1 83:-0.5 84:-1 85:-1 86:-0.428571 87:-1 88:1 90:-1 91:1 92:-1 93:-1 95:-1 96:-1 97:-1 98:0.333333 100:-1 101:-1 103:-1 104:0.5 105:-1 106:-1 107:-1 108:-1 109:1 110:-1 111:-0.333333 113:-1 114:-1 115:-0.5 116:-1 117:-1 118:-1 120:-1 121:-0.333333 124:-1 125:-1 126:-1 127:-1 128:-1 129:-1 130:-1 131:-1 132:-1 133:-1 134:1 135:-1 136:-1 137:-1 138:-1 139:-1 140:1 141:-1 142:-1 144:-1 145:-1 146:-1 147:-1 148:-1 149:-1 150:0.666667 152:-1 153:-1 154:-1 155:-0.666667 156:-1 157:-1 158:0.333333 160:-1 161:-1 162:-1 163:-1 164:1 165:-1 166:0.6 167:-0.5 168:-1 169:-1 171:1 172:-1 173:-1 174:-1 176:-1 177:-1 178:-1 180:-1 181:1 182:-0.5 183:1 184:-1 185:-1 186:-1 187:1 188:-0.428571 189:-1 190:-0.333333 191:-1 192:1 193:-1 194:-1 195:-1 196:-1 197:-0.333333 198:-1 199:-1 200:-1 
-0.01559329561725126 1:1 3:-1 4:-1 5:1 6:-1 7:-1 8:-1 10:-1 12:-1 14:-1 15:-1 17:-0.333333 18:0.333333 19:-1 20:-0.5 21:-1 22:1 23:-0.333333 24:-0.5 26:-1 27:0.333333 28:-1 29:-1 30:-1 31:-1 32:1 33:-1 34:-1 35:-1 36:-1 37:-1 38:-1 39:-1 41:-1 42:-1 43:-1 44:-1 45:-1 46:-1 47:-1 48:-0.6 49:1 50:-1 51:0.333333 53:0.333333 54:1 55:-1 56:-1 57:-1 58:-0.6 59:-1 60:-1 61:1 62:1 63:-1 65:1 66:-1 67:-1 68:-1 69:-1 71:-1 72:-1 73:1 74:1 75:-1 76:-1 77:-1 78:-1 79:1 81:-1 82:-1 83:-1 84:-1 85:-1 86:-0.714286 87:-1 88:0.333333 90:-1 91:-1 92:-1 93:-0.333333 95:-1 96:-1 97:-0.333333 98:-1 99:-1 100:-0.5 101:-1 103:-1 105:-1 107:-1 109:-1 110:-1 111:-0.333333 113:-0.333333 114:-1 115:-0.5 116:-0.333333 117:-1 118:-1 119:-1 120:-1 121:1 123:-1 124:-1 125:-1 126:-1 127:-1 128:-1 130:-1 131:-1 132:-1 133:-1 134:1 135:-1 136:-1 137:-1 139:-1 140:-0.5 141:-1 142:-1 144:-1 145:-1 146:-1 147:-1 148:-1 149:-1 150:0.333333 151:-1 152:-1 153:-1 154:-1 155:-0.666667 156:-1 157:-1 158:-0.333333 160:-1 161:-1 162:-1 163:-1 165:-1 166:1 167:-1 168:-1 169:-0.5 171:-1 172:-1 173:-0.333333 174:-1 176:1 179:-1 180:-1 181:-1 182:-0.5 183:-0.333333 184:-1 185:-1 186:1 187:1 188:-0.142857 189:-1 190:1 191:-1 192:-1 193:-1 194:1 195:-1 196:-1 197:-1 198:-1 199:-1 200:-1 
