svm_type c_svc
kernel_type rbf
gamma 0.005
nr_class 2
total_sv 23
rho -0.458919
label 0 1
nr_sv 16 7
SV
1.071244201813253 1:0 2:0 3:0 4:0 5:0 6:2 7:0 8:2 9:0 10:1 11:0 12:0 13:0 14:1 15:0 16:1 17:0 18:0 19:0 20:1 21:0 22:0 23:0 24:1 25:0 26:0 27:0 28:0 29:2 30:0 31:0 32:1 33:1 34:2 35:0 36:0 37:2 38:1 39:0 40:1 41:0 42:1 43:0 44:1 45:0 46:0 47:1 48:1 49:2 50:0 51:1 52:0 53:2 54:0 55:2 56:0 57:0 58:0 59:0 60:0 61:0 62:0 63:3 64:2 65:1 66:0 67:1 68:0 69:0 70:0 71:0 72:0 73:1 74:1 75:0 76:0 77:0 78:0 79:1 80:1 81:1 82:0 83:0 84:0 85:1 86:0 87:0 88:0 89:0 90:0 91:0 92:0 93:0 94:2 95:0 96:1 97:0 98:2 99:0 100:2 101:1 102:0 103:0 104:0 105:1 106:0 107:3 108:2 109:0 110:0 111:0 112:1 113:1 114:0 115:0 116:1 117:0 118:2 119:0 120:1 121:0 122:1 123:1 124:0 125:0 126:0 127:0 128:0 129:1 130:1 131:0 132:0 133:0 134:1 135:1 136:0 137:0 138:1 139:0 140:1 141:0 142:0 143:0 144:1 145:0 146:0 147:1 148:2 149:0 150:0 151:1 152:0 153:0 154:1 155:0 156:0 157:2 158:0 159:1 160:0 161:0 162:1 163:2 164:1 165:0 166:0 167:2 168:0 169:0 170:0 171:0 172:0 173:0 174:1 175:0 176:0 177:0 178:0 179:2 180:1 181:0 182:0 183:0 184:0 185:0 186:0 187:0 188:1 189:0 190:0 191:2 192:1 193:0 194:1 195:0 196:1 197:2 198:0 199:2 200:0 
0.7028687133423104 1:0 2:0 3:1 4:0 5:0 6:0 7:0 8:2 9:1 10:0 11:0 12:0 13:1 14:0 15:0 16:1 17:0 18:0 19:0 20:0 21:0 22:1 23:2 24:1 25:1 26:0 27:0 28:0 29:2 30:1 31:0 32:1 33:1 34:0 35:1 36:0 37:1 38:0 39:0 40:1 41:1 42:0 43:0 44:0 45:0 46:2 47:0 48:1 49:0 50:2 51:1 52:0 53:1 54:0 55:1 56:1 57:1 58:0 59:0 60:0 61:0 62:0 63:0 64:0 65:0 66:0 67:0 68:1 69:0 70:0 71:4 72:1 73:1 74:0 75:0 76:1 77:0 78:1 79:0 80:1 81:1 82:1 83:0 84:0 85:0 86:1 87:1 88:0 89:0 90:0 91:0 92:0 93:0 94:0 95:1 96:1 97:0 98:0 99:2 100:2 101:1 102:0 103:1 104:0 105:0 106:0 107:0 108:0 109:0 110:0 111:1 112:1 113:0 114:0 115:1 116:1 117:0 118:0 119:1 120:0 121:1 122:0 123:1 124:0 125:2 126:0 127:2 128:0 129:0 130:2 131:0 132:3 133:0 134:1 135:0 136:0 137:0 138:0 139:0 140:0 141:0 142:1 143:0 144:2 145:0 146:0 147:0 148:0 149:3 150:0 151:1 152:0 153:1 154:0 155:0 156:0 157:0 158:1 159:0 160:1 161:0 162:0 163:0 164:1 165:0 166:0 167:4 168:0 169:1 170:0 171:0 172:0 173:2 174:1 175:0 176:0 177:1 178:1 179:0 180:0 181:0 182:0 183:0 184:0 185:2 186:0 187:0 188:1 189:0 190:0 191:1 192:0 193:0 194:0 195:2 196:0 197:2 198:0 199:1 200:1 
0.9134063507429341 1:0 2:0 3:1 4:0 5:0 6:2 7:0 8:4 9:2 10:0 11:0 12:0 13:2 14:0 15:0 16:0 17:2 18:0 19:0 20:0 21:0 22:0 23:0 24:2 25:0 26:0 27:0 28:0 29:2 30:1 31:0 32:0 33:0 34:0 35:0 36:1 37:1 38:0 39:0 40:0 41:1 42:0 43:1 44:0 45:0 46:0 47:0 48:2 49:0 50:1 51:0 52:0 53:0 54:1 55:4 56:0 57:0 58:0 59:1 60:0 61:0 62:0 63:0 64:0 65:1 66:0 67:0 68:1 69:0 70:0 71:1 72:1 73:2 74:0 75:0 76:0 77:0 78:0 79:1 80:0 81:0 82:1 83:0 84:1 85:2 86:0 87:0 88:0 89:0 90:0 91:0 92:2 93:0 94:1 95:0 96:2 97:0 98:0 99:2 100:1 101:0 102:0 103:0 104:1 105:3 106:0 107:1 108:1 109:0 110:1 111:1 112:0 113:1 114:1 115:0 116:0 117:1 118:1 119:0 120:0 121:0 122:1 123:1 124:0 125:0 126:0 127:1 128:0 129:0 130:1 131:0 132:1 133:0 134:1 135:0 136:0 137:0 138:2 139:0 140:0 141:0 142:2 143:0 144:1 145:0 146:0 147:0 148:2 149:0 150:0 151:2 152:0 153:0 154:0 155:1 156:1 157:0 158:0 159:0 160:1 161:0 162:0 163:0 164:2 165:0 166:0 167:2 168:0 169:0 170:0 171:0 172:1 173:1 174:2 175:0 176:0 177:1 178:0 179:2 180:0 181:0 182:0 183:2 184:0 185:1 186:0 187:1 188:0 189:0 190:1 191:0 192:0 193:0 194:0 195:2 196:0 197:0 198:0 199:1 200:1 
0.4477630980199596 1:0 2:0 3:0 4:0 5:0 6:1 7:0 8:2 9:2 10:0 11:0 12:0 13:0 14:0 15:0 16:1 17:1 18:0 19:0 20:0 21:0 22:0 23:0 24:3 25:0 26:0 27:1 28:0 29:2 30:0 31:0 32:1 33:1 34:2 35:4 36:1 37:1 38:0 39:0 40:0 41:0 42:1 43:1 44:0 45:0 46:0 47:0 48:0 49:0 50:0 51:2 52:0 53:0 54:0 55:2 56:0 57:2 58:0 59:0 60:0 61:0 62:0 63:0 64:0 65:0 66:1 67:2 68:2 69:0 70:0 71:2 72:0 73:0 74:1 75:0 76:0 77:0 78:0 79:0 80:1 81:3 82:0 83:0 84:1 85:0 86:1 87:0 88:0 89:0 90:1 91:0 92:2 93:0 94:0 95:0 96:0 97:0 98:0 99:1 100:1 101:0 102:0 103:1 104:0 105:1 106:1 107:0 108:1 109:0 110:1 111:0 112:0 113:1 114:0 115:1 116:0 117:1 118:1 119:0 120:0 121:0 122:2 123:1 124:0 125:0 126:1 127:4 128:0 129:0 130:2 131:0 132:2 133:0 134:0 135:0 136:0 137:0 138:0 139:0 140:0 141:0 142:0 143:0 144:1 145:0 146:0 147:0 148:0 149:3 150:0 151:1 152:0 153:0 154:0 155:2 156:0 157:0 158:0 159:0 160:1 161:0 162:0 163:1 164:2 165:0 166:0 167:2 168:0 169:1 170:0 171:0 172:0 173:1 174:1 175:0 176:0 177:2 178:1 179:0 180:1 181:0 182:0 183:1 184:0 185:0 186:0 187:0 188:1 189:0 190:0 191:0 192:0 193:1 194:0 195:2 196:0 197:0 198:0 199:2 200:2 
0.5224539852991064 1:0 2:0 3:1 4:0 5:0 6:0 7:0 8:3 9:2 10:0 11:0 12:0 13:0 14:0 15:0 16:0 17:0 18:0 19:0 20:0 21:0 22:0 23:0 24:3 25:0 26:0 27:1 28:0 29:2 30:0 31:0 32:2 33:2 34:0 35:0 36:3 37:0 38:1 39:0 40:0 41:0 42:0 43:1 44:0 45:0 46:1 47:0 48:0 49:0 50:3 51:1 52:0 53:0 54:0 55:1 56:0 57:0 58:0 59:0 60:0 61:1 62:0 63:1 64:0 65:0 66:0 67:2 68:3 69:0 70:0 71:2 72:0 73:0 74:1 75:0 76:0 77:0 78:0 79:0 80:1 81:4 82:0 83:0 84:0 85:0 86:1 87:0 88:0 89:0 90:1 91:0 92:2 93:0 94:2 95:0 96:1 97:0 98:0 99:0 100:1 101:1 102:0 103:2 104:0 105:0 106:0 107:0 108:1 109:1 110:0 111:0 112:0 113:0 114:0 115:1 116:0 117:2 118:2 119:0 120:0 121:0 122:1 123:0 124:0 125:1 126:0 127:4 128:0 129:0 130:0 131:0 132:1 133:0 134:3 135:0 136:0 137:0 138:0 139:0 140:0 141:0 142:2 143:0 144:0 145:0 146:0 147:0 148:1 149:2 150:0 151:0 152:0 153:0 154:0 155:1 156:0 157:0 158:1 159:0 160:0 161:0 162:0 163:0 164:2 165:0 166:0 167:2 168:1 169:0 170:0 171:0 172:0 173:3 174:0 175:0 176:0 177:0 178:2 179:1 180:0 181:0 182:0 183:1 184:0 185:0 186:0 187:1 188:1 189:0 190:1 191:0 192:1 193:1 194:0 195:3 196:0 197:0 198:2 199:1 200:0 
0.2935385198557253 1:0 2:0 3:3 4:0 5:0 6:0 7:0 8:4 9:1 10:0 11:0 12:0 13:2 14:0 15:0 16:2 17:0 18:1 19:0 20:0 21:0 22:0 23:0 24:1 25:0 26:0 27:0 28:0 29:1 30:0 31:0 32:2 33:1 34:0 35:0 36:2 37:1 38:0 39:0 40:0 41:0 42:0 43:0 44:1 45:0 46:0 47:1 48:0 49:0 50:2 51:0 52:0 53:0 54:0 55:1 56:1 57:2 58:0 59:0 60:0 61:0 62:0 63:0 64:0 65:0 66:1 67:1 68:1 69:0 70:0 71:1 72:0 73:2 74:1 75:0 76:0 77:0 78:0 79:0 80:2 81:0 82:0 83:0 84:1 85:0 86:0 87:1 88:0 89:0 90:0 91:1 92:2 93:0 94:0 95:1 96:0 97:0 98:0 99:2 100:4 101:0 102:0 103:0 104:0 105:1 106:1 107:0 108:0 109:0 110:1 111:2 112:0 113:0 114:0 115:0 116:1 117:3 118:1 119:0 120:0 121:0 122:0 123:0 124:0 125:3 126:1 127:3 128:0 129:1 130:0 131:0 132:1 133:0 134:2 135:0 136:0 137:0 138:0 139:0 140:1 141:0 142:0 143:0 144:1 145:0 146:0 147:0 148:0 149:2 150:0 151:1 152:0 153:0 154:0 155:2 156:1 157:0 158:1 159:0 160:1 161:0 162:0 163:0 164:0 165:0 166:0 167:4 168:0 169:1 170:0 171:0 172:0 173:1 174:1 175:0 176:0 177:1 178:0 179:0 180:1 181:0 182:0 183:1 184:0 185:0 186:0 187:0 188:0 189:0 190:1 191:0 192:1 193:1 194:0 195:2 196:0 197:0 198:0 199:2 200:2 
0.796695155902996 1:0 2:0 3:2 4:0 5:0 6:1 7:1 8:1 9:1 10:0 11:0 12:1 13:0 14:1 15:0 16:0 17:1 18:0 19:0 20:0 21:0 22:0 23:0 24:4 25:0 26:0 27:2 28:0 29:0 30:0 31:0 32:0 33:1 34:0 35:0 36:1 37:2 38:0 39:0 40:0 41:0 42:0 43:0 44:2 45:0 46:2 47:1 48:1 49:0 50:0 51:0 52:0 53:3 54:0 55:1 56:0 57:0 58:2 59:0 60:0 61:1 62:0 63:0 64:0 65:0 66:2 67:0 68:1 69:0 70:1 71:1 72:0 73:0 74:0 75:0 76:0 77:0 78:1 79:0 80:0 81:0 82:1 83:1 84:0 85:0 86:0 87:0 88:1 89:0 90:0 91:0 92:1 93:2 94:1 95:0 96:0 97:2 98:2 99:1 100:0 101:0 102:0 103:2 104:0 105:0 106:0 107:0 108:2 109:0 110:0 111:1 112:2 113:0 114:0 115:0 116:1 117:1 118:1 119:1 120:0 121:1 122:0 123:1 124:0 125:0 126:1 127:0 128:0 129:0 130:1 131:0 132:1 133:1 134:1 135:1 136:0 137:0 138:0 139:0 140:1 141:0 142:1 143:1 144:0 145:1 146:0 147:0 148:0 149:2 150:0 151:0 152:0 153:0 154:3 155:0 156:1 157:0 158:0 159:0 160:1 161:1 162:0 163:1 164:2 165:0 166:0 167:0 168:1 169:0 170:0 171:1 172:0 173:1 174:0 175:0 176:1 177:0 178:0 179:0 180:1 181:1 182:0 183:1 184:2 185:0 186:0 187:0 188:3 189:0 190:0 191:1 192:0 193:0 194:0 195:1 196:0 197:1 198:0 199:0 200:1 
1.178141475127745 1:0 2:0 3:0 4:1 5:0 6:1 7:0 8:0 9:1 10:0 11:0 12:0 13:1 14:2 15:0 16:0 17:1 18:1 19:0 20:1 21:0 22:0 23:3 24:1 25:0 26:0 27:2 28:0 29:0 30:1 31:0 32:0 33:0 34:2 35:0 36:2 37:1 38:0 39:1 40:0 41:1 42:0 43:0 44:0 45:0 46:0 47:0 48:2 49:0 50:0 51:0 52:0 53:0 54:0 55:2 56:0 57:1 58:1 59:0 60:1 61:1 62:1 63:0 64:1 65:0 66:2 67:0 68:0 69:0 70:2 71:0 72:0 73:0 74:0 75:0 76:0 77:0 78:0 79:1 80:0 81:1 82:2 83:0 84:0 85:1 86:0 87:1 88:0 89:0 90:1 91:0 92:0 93:1 94:2 95:0 96:0 97:1 98:2 99:0 100:0 101:0 102:0 103:2 104:0 105:0 106:1 107:0 108:1 109:0 110:0 111:1 112:0 113:0 114:0 115:0 116:3 117:0 118:1 119:0 120:0 121:2 122:0 123:1 124:2 125:0 126:1 127:0 128:1 129:0 130:1 131:0 132:3 133:0 134:0 135:0 136:0 137:1 138:1 139:0 140:0 141:0 142:0 143:1 144:0 145:0 146:1 147:0 148:0 149:1 150:0 151:0 152:0 153:1 154:2 155:0 156:1 157:1 158:0 159:1 160:1 161:0 162:0 163:1 164:2 165:0 166:0 167:0 168:1 169:0 170:0 171:0 172:1 173:1 174:0 175:0 176:1 177:1 178:1 179:0 180:0 181:1 182:0 183:3 184:0 185:1 186:0 187:0 188:1 189:0 190:1 191:0 192:1 193:0 194:0 195:0 196:0 197:1 198:0 199:0 200:0 
0.6615788805639106 1:0 2:0 3:0 4:0 5:0 6:0 7:0 8:1 9:1 10:0 11:0 12:0 13:1 14:1 15:0 16:0 17:1 18:3 19:0 20:1 21:0 22:0 23:0 24:0 25:0 26:0 27:0 28:1 29:1 30:1 31:0 32:0 33:1 34:3 35:1 36:1 37:0 38:0 39:0 40:1 41:1 42:0 43:0 44:0 45:0 46:2 47:1 48:1 49:1 50:0 51:0 52:0 53:1 54:0 55:0 56:0 57:1 58:0 59:1 60:0 61:0 62:0 63:0 64:1 65:0 66:3 67:0 68:2 69:0 70:0 71:1 72:0 73:0 74:0 75:0 76:0 77:0 78:0 79:1 80:2 81:0 82:2 83:1 84:0 85:0 86:1 87:1 88:2 89:0 90:0 91:0 92:1 93:1 94:1 95:0 96:0 97:2 98:0 99:0 100:0 101:0 102:0 103:1 104:0 105:0 106:0 107:0 108:0 109:0 110:1 111:2 112:0 113:0 114:0 115:0 116:3 117:0 118:0 119:1 120:0 121:0 122:0 123:1 124:1 125:0 126:1 127:0 128:0 129:0 130:0 131:0 132:1 133:1 134:1 135:1 136:0 137:0 138:0 139:0 140:1 141:0 142:1 143:2 144:0 145:0 146:1 147:0 148:1 149:4 150:0 151:0 152:0 153:1 154:4 155:0 156:1 157:0 158:3 159:0 160:1 161:1 162:0 163:1 164:2 165:0 166:0 167:0 168:0 169:0 170:0 171:0 172:0 173:2 174:0 175:0 176:0 177:0 178:0 179:0 180:1 181:0 182:0 183:2 184:1 185:0 186:0 187:0 188:1 189:0 190:0 191:1 192:1 193:0 194:0 195:1 196:0 197:1 198:0 199:0 200:0 
0.5817384419986666 1:0 2:0 3:0 4:0 5:0 6:1 7:0 8:1 9:1 10:0 11:0 12:0 13:1 14:1 15:0 16:1 17:1 18:1 19:0 20:0 21:0 22:0 23:3 24:0 25:1 26:0 27:1 28:0 29:0 30:0 31:0 32:1 33:0 34:1 35:0 36:2 37:1 38:0 39:0 40:0 41:1 42:1 43:1 44:1 45:0 46:2 47:1 48:0 49:0 50:0 51:1 52:0 53:2 54:0 55:0 56:1 57:0 58:0 59:0 60:0 61:0 62:1 63:0 64:2 65:0 66:2 67:1 68:2 69:0 70:1 71:0 72:0 73:1 74:0 75:0 76:0 77:0 78:0 79:0 80:0 81:1 82:2 83:0 84:0 85:0 86:0 87:0 88:0 89:0 90:1 91:0 92:3 93:1 94:1 95:0 96:0 97:0 98:1 99:1 100:0 101:0 102:0 103:3 104:0 105:0 106:1 107:0 108:2 109:0 110:0 111:0 112:0 113:1 114:1 115:0 116:0 117:0 118:1 119:2 120:0 121:1 122:1 123:1 124:0 125:1 126:0 127:2 128:0 129:0 130:0 131:0 132:0 133:0 134:0 135:0 136:0 137:0 138:1 139:0 140:0 141:0 142:1 143:0 144:1 145:0 146:2 147:0 148:1 149:2 150:0 151:0 152:0 153:0 154:2 155:0 156:1 157:0 158:2 159:1 160:0 161:1 162:1 163:1 164:1 165:0 166:0 167:0 168:1 169:2 170:0 171:1 172:0 173:1 174:0 175:0 176:1 177:0 178:1 179:0 180:1 181:1 182:0 183:0 184:1 185:0 186:0 187:0 188:0 189:0 190:0 191:0 192:0 193:0 194:1 195:2 196:0 197:0 198:0 199:2 200:0 
0.7319850108901126 1:0 2:0 3:0 4:1 5:0 6:1 7:1 8:1 9:1 10:1 11:0 12:0 13:0 14:0 15:0 16:0 17:0 18:1 19:0 20:0 21:0 22:0 23:2 24:0 25:1 26:0 27:2 28:0 29:0 30:0 31:0 32:1 33:0 34:1 35:0 36:2 37:2 38:0 39:0 40:2 41:1 42:0 43:0 44:0 45:2 46:1 47:0 48:1 49:0 50:0 51:1 52:0 53:1 54:0 55:1 56:0 57:0 58:0 59:0 60:0 61:0 62:0 63:0 64:2 65:1 66:1 67:1 68:2 69:0 70:2 71:1 72:0 73:0 74:0 75:0 76:0 77:0 78:0 79:0 80:1 81:1 82:3 83:0 84:0 85:0 86:0 87:0 88:0 89:0 90:1 91:0 92:1 93:1 94:0 95:0 96:0 97:3 98:1 99:0 100:0 101:0 102:0 103:5 104:0 105:0 106:1 107:0 108:0 109:1 110:0 111:1 112:0 113:0 114:1 115:0 116:0 117:0 118:0 119:0 120:0 121:3 122:1 123:1 124:0 125:0 126:1 127:1 128:0 129:0 130:1 131:0 132:1 133:0 134:0 135:0 136:0 137:1 138:1 139:0 140:0 141:0 142:0 143:2 144:1 145:0 146:1 147:0 148:0 149:1 150:0 151:1 152:0 153:0 154:2 155:1 156:0 157:0 158:3 159:1 160:1 161:2 162:2 163:1 164:1 165:0 166:0 167:0 168:0 169:2 170:0 171:0 172:0 173:1 174:0 175:0 176:0 177:0 178:0 179:0 180:0 181:0 182:0 183:1 184:1 185:0 186:0 187:0 188:0 189:0 190:0 191:0 192:0 193:1 194:0 195:1 196:0 197:2 198:1 199:0 200:0 
0.5979578417678285 1:0 2:0 3:0 4:0 5:0 6:0 7:0 8:0 9:1 10:1 11:0 12:0 13:2 14:0 15:1 16:0 17:0 18:1 19:0 20:1 21:0 22:0 23:3 24:0 25:1 26:0 27:0 28:0 29:0 30:0 31:2 32:0 33:1 34:2 35:0 36:2 37:2 38:0 39:0 40:1 41:1 42:1 43:0 44:0 45:0 46:0 47:1 48:1 49:0 50:0 51:0 52:0 53:2 54:0 55:1 56:1 57:0 58:1 59:0 60:0 61:0 62:0 63:0 64:0 65:0 66:2 67:1 68:0 69:0 70:2 71:2 72:0 73:1 74:0 75:1 76:0 77:0 78:0 79:0 80:1 81:0 82:2 83:0 84:0 85:0 86:0 87:0 88:0 89:0 90:0 91:0 92:2 93:1 94:1 95:0 96:0 97:1 98:3 99:0 100:0 101:0 102:0 103:4 104:0 105:0 106:0 107:0 108:0 109:0 110:1 111:2 112:1 113:1 114:0 115:0 116:1 117:1 118:0 119:0 120:0 121:0 122:0 123:1 124:0 125:0 126:1 127:0 128:0 129:0 130:1 131:0 132:2 133:2 134:0 135:0 136:0 137:0 138:0 139:0 140:1 141:0 142:0 143:2 144:0 145:0 146:2 147:1 148:0 149:1 150:0 151:1 152:0 153:0 154:1 155:1 156:0 157:1 158:2 159:2 160:0 161:0 162:0 163:0 164:0 165:0 166:0 167:0 168:0 169:4 170:0 171:0 172:0 173:1 174:0 175:0 176:0 177:1 178:1 179:0 180:1 181:0 182:0 183:0 184:0 185:1 186:0 187:0 188:0 189:0 190:2 191:0 192:0 193:0 194:1 195:2 196:0 197:0 198:1 199:1 200:1 
1.073165941896328 1:0 2:0 3:1 4:0 5:1 6:0 7:0 8:0 9:0 10:1 11:0 12:0 13:0 14:0 15:1 16:0 17:2 18:2 19:0 20:0 21:1 22:1 23:0 24:2 25:0 26:0 27:1 28:0 29:1 30:0 31:0 32:1 33:0 34:0 35:0 36:2 37:0 38:0 39:0 40:1 41:0 42:0 43:1 44:0 45:1 46:1 47:4 48:0 49:0 50:0 51:0 52:0 53:2 54:0 55:1 56:0 57:0 58:1 59:0 60:0 61:2 62:0 63:2 64:0 65:0 66:0 67:0 68:0 69:0 70:0 71:1 72:0 73:1 74:0 75:0 76:0 77:0 78:0 79:0 80:0 81:0 82:1 83:2 84:0 85:1 86:4 87:2 88:2 89:0 90:0 91:0 92:1 93:0 94:0 95:0 96:0 97:1 98:1 99:0 100:0 101:1 102:0 103:1 104:0 105:0 106:0 107:0 108:0 109:0 110:0 111:1 112:0 113:0 114:0 115:4 116:3 117:0 118:0 119:1 120:0 121:2 122:1 123:1 124:1 125:0 126:0 127:0 128:0 129:0 130:0 131:1 132:0 133:0 134:3 135:0 136:1 137:0 138:0 139:0 140:2 141:0 142:0 143:1 144:0 145:0 146:0 147:0 148:0 149:1 150:0 151:0 152:0 153:0 154:0 155:6 156:0 157:1 158:0 159:0 160:0 161:0 162:1 163:0 164:0 165:0 166:5 167:0 168:0 169:0 170:0 171:1 172:1 173:1 174:0 175:0 176:0 177:0 178:0 179:1 180:0 181:0 182:0 183:0 184:3 185:0 186:0 187:0 188:0 189:1 190:0 191:1 192:0 193:0 194:0 195:0 196:3 197:0 198:0 199:0 200:0 
0.6178171486336163 1:1 2:0 3:2 4:0 5:0 6:0 7:5 8:0 9:0 10:0 11:0 12:0 13:0 14:0 15:0 16:0 17:2 18:1 19:0 20:1 21:0 22:1 23:1 24:1 25:2 26:1 27:0 28:0 29:0 30:3 31:0 32:0 33:0 34:0 35:0 36:0 37:0 38:2 39:0 40:0 41:0 42:0 43:0 44:0 45:0 46:2 47:0 48:0 49:0 50:0 51:1 52:0 53:0 54:0 55:0 56:0 57:0 58:0 59:0 60:0 61:1 62:0 63:0 64:0 65:1 66:0 67:0 68:0 69:0 70:2 71:0 72:1 73:1 74:0 75:0 76:1 77:0 78:0 79:0 80:0 81:0 82:0 83:4 84:0 85:0 86:7 87:1 88:1 89:0 90:0 91:1 92:0 93:0 94:0 95:0 96:1 97:2 98:0 99:0 100:0 101:0 102:0 103:1 104:4 105:0 106:0 107:0 108:1 109:0 110:0 111:0 112:0 113:2 114:0 115:0 116:2 117:0 118:0 119:1 120:0 121:2 122:0 123:2 124:0 125:0 126:1 127:0 128:0 129:1 130:0 131:1 132:0 133:0 134:2 135:0 136:0 137:1 138:0 139:1 140:0 141:0 142:0 143:0 144:0 145:0 146:1 147:0 148:0 149:2 150:0 151:0 152:0 153:1 154:0 155:0 156:0 157:0 158:1 159:0 160:0 161:2 162:1 163:0 164:0 165:0 166:2 167:0 168:0 169:0 170:0 171:0 172:2 173:0 174:0 175:0 176:0 177:0 178:0 179:1 180:1 181:0 182:1 183:0 184:1 185:0 186:0 187:0 188:7 189:1 190:0 191:1 192:0 193:0 194:0 195:0 196:2 197:0 198:1 199:0 200:0 
0.5204900612257427 1:0 2:0 3:2 4:2 5:0 6:0 7:3 8:0 9:0 10:0 11:0 12:0 13:0 14:3 15:0 16:0 17:0 18:0 19:0 20:4 21:1 22:0 23:1 24:0 25:2 26:0 27:0 28:0 29:1 30:0 31:0 32:0 33:1 34:0 35:0 36:0 37:0 38:2 39:0 40:0 41:0 42:0 43:1 44:0 45:1 46:1 47:0 48:0 49:0 50:0 51:0 52:0 53:0 54:1 55:0 56:0 57:0 58:5 59:1 60:0 61:0 62:0 63:0 64:0 65:1 66:1 67:0 68:0 69:0 70:2 71:0 72:0 73:0 74:0 75:0 76:0 77:1 78:1 79:1 80:0 81:0 82:0 83:3 84:0 85:0 86:5 87:0 88:0 89:0 90:0 91:0 92:0 93:0 94:0 95:0 96:0 97:3 98:0 99:0 100:0 101:0 102:0 103:2 104:2 105:0 106:0 107:0 108:1 109:0 110:0 111:1 112:0 113:3 114:0 115:1 116:1 117:0 118:0 119:1 120:0 121:2 122:0 123:1 124:0 125:0 126:1 127:0 128:0 129:2 130:0 131:0 132:0 133:0 134:1 135:0 136:0 137:0 138:0 139:0 140:1 141:0 142:0 143:0 144:0 145:0 146:2 147:0 148:0 149:0 150:3 151:0 152:0 153:1 154:0 155:0 156:0 157:0 158:0 159:0 160:0 161:1 162:0 163:0 164:1 165:1 166:2 167:0 168:0 169:0 170:0 171:1 172:1 173:2 174:0 175:0 176:1 177:0 178:0 179:0 180:0 181:0 182:3 183:0 184:2 185:0 186:0 187:0 188:6 189:0 190:0 191:1 192:0 193:0 194:0 195:0 196:2 197:0 198:0 199:0 200:0 
0.8446809478339472 1:0 2:0 3:1 4:0 5:0 6:2 7:0 8:0 9:0 10:1 11:0 12:0 13:0 14:0 15:1 16:1 17:0 18:2 19:0 20:0 21:2 22:1 23:0 24:2 25:0 26:0 27:0 28:0 29:1 30:0 31:0 32:0 33:1 34:0 35:0 36:0 37:0 38:1 39:0 40:0 41:2 42:1 43:4 44:0 45:0 46:0 47:0 48:0 49:2 50:0 51:1 52:0 53:0 54:0 55:0 56:1 57:0 58:4 59:0 60:0 61:0 62:1 63:1 64:0 65:0 66:0 67:0 68:0 69:0 70:0 71:1 72:0 73:0 74:0 75:0 76:0 77:0 78:0 79:0 80:0 81:0 82:0 83:0 84:0 85:0 86:7 87:2 88:1 89:0 90:0 91:0 92:0 93:3 94:1 95:0 96:0 97:1 98:0 99:0 100:1 101:0 102:0 103:0 104:4 105:0 106:0 107:0 108:2 109:0 110:0 111:1 112:0 113:0 114:0 115:1 116:0 117:0 118:0 119:0 120:2 121:1 122:0 123:1 124:2 125:1 126:1 127:0 128:0 129:0 130:0 131:0 132:1 133:1 134:1 135:0 136:0 137:0 138:0 139:0 140:0 141:0 142:0 143:1 144:0 145:0 146:2 147:0 148:0 149:1 150:2 151:0 152:0 153:0 154:0 155:0 156:0 157:1 158:0 159:1 160:0 161:0 162:0 163:0 164:0 165:0 166:4 167:2 168:0 169:0 170:0 171:0 172:0 173:0 174:0 175:0 176:1 177:0 178:1 179:2 180:0 181:0 182:4 183:0 184:1 185:1 186:0 187:0 188:2 189:0 190:0 191:0 192:0 193:1 194:0 195:0 196:2 197:1 198:1 199:0 200:0 
-2.076340148483263 1:0 2:0 3:0 4:0 5:0 6:1 7:1 8:0 9:1 10:0 11:0 12:0 13:0 14:2 15:0 16:0 17:3 18:0 19:0 20:0 21:0 22:0 23:2 24:2 25:0 26:0 27:1 28:0 29:2 30:0 31:0 32:1 33:1 34:0 35:1 36:1 37:1 38:0 39:1 40:0 41:1 42:1 43:0 44:0 45:0 46:0 47:0 48:0 49:2 50:0 51:1 52:0 53:1 54:0 55:1 56:1 57:0 58:0 59:0 60:0 61:0 62:1 63:1 64:1 65:0 66:1 67:0 68:0 69:0 70:1 71:1 72:2 73:0 74:0 75:1 76:0 77:0 78:0 79:0 80:1 81:1 82:1 83:0 84:1 85:0 86:0 87:0 88:0 89:0 90:0 91:1 92:1 93:0 94:0 95:0 96:2 97:3 98:1 99:0 100:0 101:0 102:0 103:0 104:0 105:0 106:0 107:1 108:1 109:0 110:0 111:0 112:1 113:0 114:0 115:0 116:3 117:0 118:0 119:2 120:0 121:0 122:0 123:0 124:0 125:0 126:2 127:1 128:0 129:1 130:0 131:0 132:2 133:1 134:0 135:0 136:0 137:2 138:1 139:0 140:0 141:0 142:3 143:0 144:0 145:0 146:0 147:3 148:1 149:0 150:0 151:1 152:0 153:0 154:2 155:0 156:0 157:0 158:0 159:0 160:0 161:2 162:0 163:1 164:0 165:0 166:0 167:0 168:1 169:0 170:0 171:0 172:1 173:1 174:0 175:0 176:0 177:0 178:0 179:0 180:2 181:0 182:0 183:3 184:2 185:0 186:1 187:1 188:0 189:0 190:1 191:1 192:0 193:2 194:1 195:1 196:0 197:0 198:1 199:0 200:0 
-1.448014507207822 1:0 2:0 3:1 4:0 5:0 6:0 7:1 8:0 9:2 10:0 11:0 12:1 13:1 14:0 15:0 16:0 17:3 18:0 19:0 20:0 21:0 22:1 23:0 24:0 25:2 26:0 27:0 28:0 29:1 30:0 31:2 32:0 33:0 34:0 35:0 36:1 37:1 38:1 39:0 40:1 41:0 42:0 43:1 44:0 45:1 46:0 47:1 48:3 49:0 50:0 51:2 52:0 53:0 54:0 55:1 56:1 57:2 58:0 59:0 60:1 61:0 62:1 63:1 64:1 65:0 66:0 67:1 68:1 69:0 70:2 71:2 72:0 73:1 74:0 75:0 76:0 77:0 78:1 79:0 80:0 81:0 82:2 83:0 84:1 85:0 86:0 87:0 88:2 89:0 90:0 91:0 92:0 93:0 94:0 95:1 96:0 97:0 98:0 99:0 100:1 101:0 102:0 103:3 104:0 105:0 106:0 107:2 108:2 109:0 110:0 111:0 112:0 113:0 114:1 115:0 116:0 117:1 118:0 119:0 120:0 121:0 122:0 123:0 124:2 125:0 126:1 127:2 128:0 129:0 130:1 131:0 132:1 133:2 134:0 135:0 136:0 137:0 138:0 139:0 140:0 141:0 142:2 143:0 144:1 145:2 146:0 147:1 148:0 149:1 150:0 151:2 152:0 153:2 154:0 155:0 156:0 157:2 158:0 159:0 160:0 161:2 162:3 163:0 164:2 165:0 166:0 167:0 168:0 169:0 170:0 171:0 172:1 173:0 174:0 175:0 176:0 177:0 178:0 179:1 180:0 181:0 182:0 183:1 184:2 185:0 186:0 187:0 188:0 189:0 190:2 191:1 192:0 193:1 194:0 195:2 196:0 197:0 198:1 199:0 200:0 
-2.127846180916619 1:0 2:0 3:0 4:0 5:0 6:0 7:1 8:1 9:2 10:0 11:2 12:0 13:0 14:0 15:0 16:2 17:0 18:0 19:1 20:0 21:0 22:1 23:1 24:1 25:0 26:0 27:0 28:0 29:0 30:1 31:0 32:0 33:0 34:3 35:0 36:1 37:1 38:0 39:2 40:0 41:0 42:0 43:0 44:2 45:0 46:1 47:0 48:2 49:0 50:0 51:2 52:0 53:0 54:1 55:1 56:0 57:2 58:0 59:1 60:0 61:0 62:1 63:1 64:0 65:1 66:0 67:1 68:0 69:1 70:0 71:1 72:2 73:0 74:0 75:1 76:0 77:0 78:0 79:0 80:0 81:0 82:2 83:0 84:1 85:1 86:0 87:0 88:0 89:0 90:0 91:0 92:1 93:1 94:2 95:0 96:0 97:0 98:0 99:1 100:0 101:0 102:0 103:2 104:0 105:0 106:0 107:0 108:2 109:0 110:0 111:2 112:1 113:0 114:0 115:1 116:1 117:0 118:0 119:1 120:0 121:0 122:0 123:1 124:3 125:0 126:0 127:2 128:0 129:0 130:0 131:0 132:2 133:0 134:0 135:0 136:1 137:0 138:1 139:0 140:0 141:0 142:1 143:0 144:1 145:0 146:0 147:0 148:1 149:2 150:0 151:0 152:1 153:0 154:2 155:1 156:0 157:0 158:0 159:0 160:0 161:2 162:2 163:0 164:1 165:0 166:0 167:1 168:0 169:1 170:0 171:0 172:1 173:1 174:0 175:0 176:0 177:0 178:0 179:1 180:1 181:1 182:0 183:2 184:1 185:0 186:0 187:0 188:0 189:1 190:1 191:0 192:0 193:1 194:0 195:2 196:0 197:0 198:1 199:0 200:0 
-1.652381211867044 1:0 2:0 3:0 4:0 5:0 6:0 7:1 8:1 9:1 10:1 11:0 12:0 13:0 14:0 15:1 16:0 17:0 18:0 19:1 20:0 21:0 22:0 23:1 24:0 25:0 26:0 27:0 28:0 29:2 30:0 31:0 32:1 33:1 34:1 35:0 36:1 37:2 38:0 39:2 40:0 41:0 42:1 43:0 44:0 45:0 46:0 47:0 48:5 49:1 50:1 51:0 52:0 53:1 54:0 55:1 56:0 57:1 58:0 59:1 60:0 61:1 62:2 63:0 64:1 65:0 66:0 67:1 68:1 69:1 70:0 71:4 72:0 73:1 74:1 75:0 76:0 77:0 78:1 79:0 80:0 81:1 82:0 83:0 84:1 85:0 86:0 87:0 88:0 89:0 90:1 91:1 92:1 93:1 94:0 95:0 96:0 97:0 98:0 99:0 100:1 101:1 102:0 103:2 104:0 105:0 106:0 107:2 108:2 109:0 110:0 111:3 112:1 113:0 114:0 115:0 116:1 117:0 118:0 119:1 120:0 121:2 122:1 123:0 124:1 125:0 126:0 127:0 128:0 129:0 130:0 131:0 132:1 133:1 134:0 135:0 136:0 137:0 138:0 139:1 140:0 141:1 142:2 143:0 144:0 145:2 146:0 147:0 148:0 149:0 150:0 151:1 152:1 153:1 154:2 155:0 156:0 157:0 158:0 159:0 160:0 161:2 162:2 163:1 164:1 165:0 166:0 167:1 168:0 169:1 170:0 171:0 172:0 173:1 174:0 175:0 176:0 177:1 178:1 179:1 180:0 181:0 182:0 183:1 184:2 185:0 186:0 187:0 188:1 189:0 190:0 191:0 192:1 193:0 194:0 195:1 196:1 197:0 198:1 199:0 200:0 
-1.594347887984898 1:0 2:0 3:1 4:0 5:1 6:0 7:0 8:0 9:0 10:0 11:0 12:1 13:1 14:0 15:1 16:1 17:1 18:2 19:1 20:0 21:0 22:0 23:2 24:0 25:0 26:0 27:3 28:0 29:1 30:0 31:0 32:0 33:1 34:0 35:0 36:0 37:0 38:0 39:0 40:2 41:0 42:0 43:0 44:1 45:0 46:0 47:3 48:1 49:1 50:0 51:1 52:0 53:1 54:0 55:0 56:0 57:0 58:1 59:1 60:1 61:0 62:0 63:1 64:1 65:1 66:0 67:0 68:0 69:1 70:0 71:0 72:1 73:0 74:1 75:1 76:0 77:0 78:1 79:0 80:1 81:1 82:0 83:3 84:0 85:0 86:3 87:1 88:0 89:0 90:0 91:0 92:0 93:0 94:0 95:0 96:0 97:0 98:0 99:1 100:2 101:0 102:0 103:0 104:1 105:0 106:2 107:0 108:0 109:0 110:0 111:0 112:0 113:1 114:0 115:2 116:1 117:0 118:0 119:1 120:0 121:1 122:0 123:0 124:0 125:0 126:0 127:2 128:0 129:0 130:1 131:2 132:0 133:1 134:2 135:0 136:0 137:0 138:0 139:0 140:1 141:0 142:0 143:1 144:0 145:0 146:0 147:0 148:0 149:0 150:6 151:1 152:0 153:0 154:0 155:2 156:0 157:0 158:0 159:1 160:1 161:0 162:0 163:1 164:1 165:0 166:3 167:0 168:0 169:0 170:0 171:0 172:0 173:0 174:0 175:0 176:1 177:1 178:2 179:0 180:0 181:1 182:2 183:1 184:0 185:0 186:1 187:0 188:2 189:0 190:2 191:0 192:0 193:0 194:0 195:1 196:0 197:0 198:0 199:0 200:1 
-1.422854054333452 1:1 2:0 3:1 4:0 5:0 6:0 7:0 8:0 9:0 10:0 11:0 12:1 13:0 14:0 15:0 16:1 17:0 18:2 19:0 20:0 21:0 22:0 23:0 24:1 25:2 26:0 27:1 28:2 29:1 30:0 31:1 32:2 33:1 34:0 35:1 36:0 37:2 38:0 39:1 40:0 41:0 42:1 43:1 44:0 45:0 46:0 47:1 48:0 49:0 50:1 51:3 52:0 53:3 54:0 55:0 56:0 57:0 58:0 59:1 60:1 61:0 62:1 63:0 64:0 65:0 66:0 67:0 68:0 69:0 70:0 71:1 72:1 73:1 74:0 75:0 76:1 77:0 78:0 79:0 80:1 81:0 82:0 83:1 84:0 85:0 86:2 87:0 88:3 89:0 90:0 91:1 92:0 93:0 94:1 95:0 96:0 97:0 98:2 99:1 100:0 101:0 102:0 103:0 104:3 105:0 106:0 107:0 108:0 109:1 110:0 111:1 112:1 113:0 114:0 115:1 116:0 117:0 118:0 119:1 120:0 121:1 122:1 123:1 124:0 125:0 126:0 127:0 128:0 129:0 130:0 131:0 132:0 133:0 134:4 135:0 136:0 137:0 138:0 139:0 140:4 141:0 142:0 143:1 144:0 145:0 146:0 147:0 148:0 149:0 150:5 151:1 152:0 153:0 154:0 155:1 156:0 157:0 158:2 159:1 160:0 161:0 162:0 163:0 164:2 165:0 166:4 167:1 168:0 169:0 170:0 171:1 172:0 173:0 174:0 175:0 176:0 177:0 178:0 179:1 180:0 181:1 182:1 183:3 184:0 185:0 186:0 187:1 188:2 189:0 190:1 191:0 192:1 193:0 194:0 195:0 196:0 197:1 198:0 199:0 200:0 
-1.233741784121083 1:1 2:0 3:0 4:0 5:1 6:0 7:0 8:0 9:1 10:0 11:1 12:0 13:1 14:0 15:0 16:1 17:1 18:2 19:0 20:1 21:0 22:1 23:1 24:1 25:1 26:0 27:2 28:0 29:0 30:0 31:0 32:2 33:0 34:0 35:0 36:0 37:0 38:0 39:0 40:1 41:0 42:0 43:0 44:0 45:0 46:0 47:0 48:1 49:5 50:0 51:2 52:0 53:2 54:1 55:0 56:0 57:0 58:1 59:0 60:0 61:2 62:2 63:0 64:1 65:1 66:0 67:0 68:0 69:0 70:1 71:0 72:0 73:2 74:1 75:0 76:0 77:0 78:0 79:1 80:1 81:0 82:0 83:0 84:0 85:0 86:1 87:0 88:2 89:0 90:0 91:0 92:0 93:1 94:1 95:0 96:0 97:1 98:0 99:0 100:1 101:0 102:0 103:0 104:2 105:0 106:1 107:0 108:1 109:0 110:0 111:1 112:1 113:1 114:0 115:1 116:1 117:0 118:0 119:0 120:0 121:3 122:1 123:0 124:0 125:0 126:0 127:0 128:0 129:1 130:0 131:0 132:0 133:0 134:4 135:0 136:0 137:0 138:1 139:0 140:1 141:0 142:0 143:1 144:0 145:0 146:0 147:0 148:0 149:0 150:4 151:0 152:0 153:0 154:0 155:1 156:0 157:0 158:1 159:1 160:0 161:0 162:0 163:0 164:1 165:0 166:5 167:0 168:0 169:1 170:0 171:0 172:0 173:1 174:0 175:0 176:1 177:1 178:1 179:0 180:0 181:0 182:1 183:1 184:0 185:0 186:1 187:1 188:3 189:0 190:3 191:0 192:0 193:0 194:1 195:0 196:0 197:0 198:0 199:0 200:0 
